{
  "seeds": [
    42,
    43,
    44,
    45,
    46
  ],
  "teacher_teacher": {
    "vector_params": {
      "or_gains": {
        "mean_correlation": 0.9926085353528993,
        "std_correlation": 0.0033766841788099317,
        "min_correlation": 0.9865314156071547,
        "max_correlation": 0.9977047337173415,
        "n_pairs": 10,
        "matrix": [
          [
            1.0,
            0.9939024293919034,
            0.9914416680391236,
            0.9881474903400297,
            0.9951177911704171
          ],
          [
            0.9939024293919034,
            1.0,
            0.995851309163545,
            0.9918884060100935,
            0.9977047337173415
          ],
          [
            0.9914416680391236,
            0.995851309163545,
            1.0,
            0.9865314156071547,
            0.995074929867124
          ],
          [
            0.9881474903400297,
            0.9918884060100935,
            0.9865314156071547,
            1.0,
            0.9904251802222598
          ],
          [
            0.9951177911704171,
            0.9977047337173415,
            0.995074929867124,
            0.9904251802222598,
            1.0
          ]
        ]
      },
      "decoder_weight": {
        "mean_correlation": 0.7873941630881772,
        "std_correlation": 0.03721147600417706,
        "min_correlation": 0.7376629660512495,
        "max_correlation": 0.8424505662901507,
        "n_pairs": 10,
        "matrix": [
          [
            1.0,
            0.8089518159081946,
            0.7577080794489788,
            0.7466406556724302,
            0.8424505662901507
          ],
          [
            0.8089518159081946,
            1.0,
            0.823166070280191,
            0.8223177369985256,
            0.8066379508166682
          ],
          [
            0.7577080794489788,
            0.823166070280191,
            1.0,
            0.7378360873066527,
            0.7905697021087305
          ],
          [
            0.7466406556724302,
            0.8223177369985256,
            0.7378360873066527,
            1.0,
            0.7376629660512495
          ],
          [
            0.8424505662901507,
            0.8066379508166682,
            0.7905697021087305,
            0.7376629660512495,
            1.0
          ]
        ]
      },
      "decoder_bias": {
        "mean_correlation": 0.917667171067516,
        "std_correlation": 0.039875611885115674,
        "min_correlation": 0.8140577215930578,
        "max_correlation": 0.9636069182070275,
        "n_pairs": 10,
        "matrix": [
          [
            1.0,
            0.9636069182070275,
            0.9413712733937001,
            0.9221526525574465,
            0.9192711546890959
          ],
          [
            0.9636069182070275,
            1.0,
            0.9318086950088263,
            0.9556513156823413,
            0.8903799894443911
          ],
          [
            0.9413712733937001,
            0.9318086950088263,
            1.0,
            0.9129127504855037,
            0.9254592396137702
          ],
          [
            0.9221526525574465,
            0.9556513156823413,
            0.9129127504855037,
            1.0,
            0.8140577215930578
          ],
          [
            0.9192711546890959,
            0.8903799894443911,
            0.9254592396137702,
            0.8140577215930578,
            1.0
          ]
        ]
      },
      "kc_threshold": {
        "mean_correlation": 0.5316762714181517,
        "std_correlation": 0.10553696215912092,
        "min_correlation": 0.31088216038007915,
        "max_correlation": 0.6855730860894789,
        "n_pairs": 10,
        "matrix": [
          [
            1.0,
            0.6096093097456702,
            0.5339380272511114,
            0.4437732724853231,
            0.6387808575312927
          ],
          [
            0.6096093097456702,
            1.0,
            0.6855730860894789,
            0.6126420677247587,
            0.474266858232234
          ],
          [
            0.5339380272511114,
            0.6855730860894789,
            1.0,
            0.47013120941306286,
            0.5371658653285045
          ],
          [
            0.4437732724853231,
            0.6126420677247587,
            0.47013120941306286,
            1.0,
            0.31088216038007915
          ],
          [
            0.6387808575312927,
            0.474266858232234,
            0.5371658653285045,
            0.31088216038007915,
            1.0
          ]
        ]
      }
    },
    "scalar_params": {
      "apl_gain": {
        "mean": 0.8956234097480774,
        "std": 0.04022511519530659,
        "cv": 0.0449129787782358,
        "values": {
          "42": 0.9201269149780273,
          "43": 0.9418132305145264,
          "44": 0.9210041761398315,
          "45": 0.8406193256378174,
          "46": 0.8545534014701843
        }
      },
      "orn_pn_strength": {
        "mean": 3.3700512409210206,
        "std": 0.04949146054136707,
        "cv": 0.014685670039794785,
        "values": {
          "42": 3.36956787109375,
          "43": 3.361867666244507,
          "44": 3.332136869430542,
          "45": 3.323853015899658,
          "46": 3.4628307819366455
        }
      },
      "ln_pn_strength": {
        "mean": 0.9989353537559509,
        "std": 0.10998472708451047,
        "cv": 0.11010194670853621,
        "values": {
          "42": 1.1320934295654297,
          "43": 0.924477219581604,
          "44": 1.0503641366958618,
          "45": 0.8244996666908264,
          "46": 1.0632423162460327
        }
      }
    }
  },
  "student_student": {
    "vector_params": {
      "or_gains": {
        "mean_correlation": 0.9947552687073559,
        "std_correlation": 0.002037689680350717,
        "min_correlation": 0.9914053581560278,
        "max_correlation": 0.9969652115187773,
        "n_pairs": 10,
        "matrix": [
          [
            1.0,
            0.9938480289932868,
            0.9963625971754502,
            0.9929741390474282,
            0.9966102501051609
          ],
          [
            0.9938480289932868,
            1.0,
            0.9969652115187773,
            0.9914053581560278,
            0.9965905827059307
          ],
          [
            0.9963625971754502,
            0.9969652115187773,
            1.0,
            0.9922874930921898,
            0.9969036481979618
          ],
          [
            0.9929741390474282,
            0.9914053581560278,
            0.9922874930921898,
            1.0,
            0.9936053780813444
          ],
          [
            0.9966102501051609,
            0.9965905827059307,
            0.9969036481979618,
            0.9936053780813444,
            1.0
          ]
        ]
      },
      "decoder_weight": {
        "mean_correlation": 0.906156397376856,
        "std_correlation": 0.02067168839889336,
        "min_correlation": 0.8703581246712012,
        "max_correlation": 0.9353527247454504,
        "n_pairs": 10,
        "matrix": [
          [
            1.0,
            0.9219221301369456,
            0.9001624058822442,
            0.8827582813959355,
            0.9289155334816941
          ],
          [
            0.9219221301369456,
            1.0,
            0.9353527247454504,
            0.9084687730125043,
            0.9206064979990194
          ],
          [
            0.9001624058822442,
            0.9353527247454504,
            1.0,
            0.8703581246712012,
            0.9104568069637364
          ],
          [
            0.8827582813959355,
            0.9084687730125043,
            0.8703581246712012,
            1.0,
            0.8825626954798296
          ],
          [
            0.9289155334816941,
            0.9206064979990194,
            0.9104568069637364,
            0.8825626954798296,
            1.0
          ]
        ]
      },
      "decoder_bias": {
        "mean_correlation": 0.9737118951243673,
        "std_correlation": 0.015901968590236605,
        "min_correlation": 0.9448297062859982,
        "max_correlation": 0.9890943515645757,
        "n_pairs": 10,
        "matrix": [
          [
            1.0,
            0.983314884184693,
            0.9803021152221424,
            0.9453780924781771,
            0.9876132331215868
          ],
          [
            0.983314884184693,
            1.0,
            0.9851057831312486,
            0.9713850974409699,
            0.9890943515645757
          ],
          [
            0.9803021152221424,
            0.9851057831312486,
            1.0,
            0.9653674231464157,
            0.984728264667865
          ],
          [
            0.9453780924781771,
            0.9713850974409699,
            0.9653674231464157,
            1.0,
            0.9448297062859982
          ],
          [
            0.9876132331215868,
            0.9890943515645757,
            0.984728264667865,
            0.9448297062859982,
            1.0
          ]
        ]
      },
      "kc_v_th": {
        "mean_correlation": 0.9508425452696748,
        "std_correlation": 0.016041326471542723,
        "min_correlation": 0.9198505757122531,
        "max_correlation": 0.9698097578987143,
        "n_pairs": 10,
        "matrix": [
          [
            1.0,
            0.9474192642871178,
            0.9474834246222529,
            0.9198505757122531,
            0.9457936424854257
          ],
          [
            0.9474192642871178,
            1.0,
            0.9639039870325221,
            0.9653270422151261,
            0.9698097578987143
          ],
          [
            0.9474834246222529,
            0.9639039870325221,
            1.0,
            0.9291929783693295,
            0.969674023668497
          ],
          [
            0.9198505757122531,
            0.9653270422151261,
            0.9291929783693295,
            1.0,
            0.9499707564055091
          ],
          [
            0.9457936424854257,
            0.9698097578987143,
            0.969674023668497,
            0.9499707564055091,
            1.0
          ]
        ]
      },
      "ln_v_th": {
        "mean_correlation": 0.9824750996886775,
        "std_correlation": 0.0073485653199413855,
        "min_correlation": 0.9665162372961207,
        "max_correlation": 0.9895664451946788,
        "n_pairs": 10,
        "matrix": [
          [
            1.0,
            0.9883014226153303,
            0.988261167435944,
            0.9861639921086987,
            0.980703363088891
          ],
          [
            0.9883014226153303,
            1.0,
            0.9882387415355545,
            0.9895664451946788,
            0.9779586067435431
          ],
          [
            0.988261167435944,
            0.9882387415355545,
            1.0,
            0.985836861627028,
            0.9732041592409867
          ],
          [
            0.9861639921086987,
            0.9895664451946788,
            0.985836861627028,
            1.0,
            0.9665162372961207
          ],
          [
            0.980703363088891,
            0.9779586067435431,
            0.9732041592409867,
            0.9665162372961207,
            1.0
          ]
        ]
      },
      "orn_v_th": {
        "mean_correlation": 0.8550939949994607,
        "std_correlation": 0.05842987784773925,
        "min_correlation": 0.7732871422092172,
        "max_correlation": 0.9419182400308035,
        "n_pairs": 10,
        "matrix": [
          [
            1.0,
            0.845346180609883,
            0.9027674767041564,
            0.779081931540446,
            0.9309232873928671
          ],
          [
            0.845346180609883,
            1.0,
            0.9419182400308035,
            0.8675806450110658,
            0.7732871422092172
          ],
          [
            0.9027674767041564,
            0.9419182400308035,
            1.0,
            0.868456471532854,
            0.8615685795397879
          ],
          [
            0.779081931540446,
            0.8675806450110658,
            0.868456471532854,
            1.0,
            0.7800099954235269
          ],
          [
            0.9309232873928671,
            0.7732871422092172,
            0.8615685795397879,
            0.7800099954235269,
            1.0
          ]
        ]
      },
      "pn_v_th": {
        "mean_correlation": 0.9649300380399506,
        "std_correlation": 0.01449509336269702,
        "min_correlation": 0.9423778474222694,
        "max_correlation": 0.9885913827592334,
        "n_pairs": 10,
        "matrix": [
          [
            1.0,
            0.9470133449012662,
            0.9570363898600609,
            0.9423778474222694,
            0.9588201437164275
          ],
          [
            0.9470133449012662,
            1.0,
            0.9885913827592334,
            0.9806034495706913,
            0.970948800398569
          ],
          [
            0.9570363898600609,
            0.9885913827592334,
            1.0,
            0.9743052720405978,
            0.9758054925336422
          ],
          [
            0.9423778474222694,
            0.9806034495706913,
            0.9743052720405978,
            1.0,
            0.9537982571967492
          ],
          [
            0.9588201437164275,
            0.970948800398569,
            0.9758054925336422,
            0.9537982571967492,
            1.0
          ]
        ]
      }
    },
    "scalar_params": {
      "apl_gain": {
        "mean": 6.936809921264649,
        "std": 0.20308084758785058,
        "cv": 0.029275827057810882,
        "values": {
          "42": 7.039743423461914,
          "43": 7.223893642425537,
          "44": 6.8746867179870605,
          "45": 6.606159210205078,
          "46": 6.939566612243652
        }
      },
      "log_g_gap_ln": {
        "mean": -22.723618294002186,
        "std": 0.02949965207368311,
        "cv": 0.0012981934343382908,
        "values": {
          "42": -22.718242802462747,
          "43": -22.720637653327564,
          "44": -22.67334049860556,
          "45": -22.758703350678967,
          "46": -22.747167164936094
        }
      },
      "log_g_gap_pn": {
        "mean": -23.071332972826145,
        "std": 0.023027069390591116,
        "cv": 0.0009980814466902643,
        "values": {
          "42": -23.077328237243428,
          "43": -23.04640082393915,
          "44": -23.043478898770143,
          "45": -23.102574726320906,
          "46": -23.08688217785709
        }
      },
      "log_g_gap_eln_pn": {
        "mean": -23.219250184278525,
        "std": 0.040000101441215255,
        "cv": 0.0017227128836528427,
        "values": {
          "42": -23.210331053120804,
          "43": -23.17604227556673,
          "44": -23.211060105942387,
          "45": -23.20376111724805,
          "46": -23.29505636951466
        }
      },
      "log_g_soma": {
        "mean": -18.047233963012694,
        "std": 0.0061455775039051625,
        "cv": 0.00034052739142742614,
        "values": {
          "42": -18.057682037353516,
          "43": -18.044647216796875,
          "44": -18.044109344482422,
          "45": -18.049964904785156,
          "46": -18.039766311645508
        }
      },
      "orn_pn_log_strength": {
        "mean": -19.529440307617186,
        "std": 0.007983268199377452,
        "cv": 0.0004087812079419239,
        "values": {
          "42": -19.532148361206055,
          "43": -19.53717041015625,
          "44": -19.536766052246094,
          "45": -19.52503776550293,
          "46": -19.51607894897461
        }
      },
      "ln_pn_log_strength": {
        "mean": -18.967217254638673,
        "std": 0.013505651548856018,
        "cv": 0.0007120523462951868,
        "values": {
          "42": -18.972309112548828,
          "43": -18.949386596679688,
          "44": -18.95954704284668,
          "45": -18.965152740478516,
          "46": -18.98969078063965
        }
      },
      "ln_pn_excit_log_strength": {
        "mean": -21.27424011230469,
        "std": 0.01970386301200069,
        "cv": 0.0009261841037793065,
        "values": {
          "42": -21.276700973510742,
          "43": -21.291868209838867,
          "44": -21.293363571166992,
          "45": -21.238983154296875,
          "46": -21.27028465270996
        }
      },
      "kc_kc_aa_log_strength": {
        "mean": -25.750509643554686,
        "std": 0.0055646435818241455,
        "cv": 0.00021609838635628585,
        "values": {
          "42": -25.74642562866211,
          "43": -25.754423141479492,
          "44": -25.746112823486328,
          "45": -25.7459716796875,
          "46": -25.759614944458008
        }
      },
      "pn_kc_log_strength": {
        "mean": -18.948817825317384,
        "std": 0.04331266016424902,
        "cv": 0.0022857710999986116,
        "values": {
          "42": -18.8819522857666,
          "43": -18.94891929626465,
          "44": -18.974071502685547,
          "45": -19.010862350463867,
          "46": -18.92828369140625
        }
      },
      "log_tau_apl": {
        "mean": -4.250320053100586,
        "std": 0.0025802924213802645,
        "cv": 0.0006070819112781766,
        "values": {
          "42": -4.250672340393066,
          "43": -4.255064487457275,
          "44": -4.247926712036133,
          "45": -4.2497663497924805,
          "46": -4.248170375823975
        }
      }
    }
  },
  "teacher_to_student_drift": {
    "or_gains": {
      "per_seed": [
        {
          "seed": 42,
          "correlation": 0.9937018007573408,
          "norm_ratio": 0.7893802182345125,
          "mean_rel_change": 0.7213866710662842
        },
        {
          "seed": 43,
          "correlation": 0.9938647188926332,
          "norm_ratio": 0.8004655684483727,
          "mean_rel_change": 0.49974122643470764
        },
        {
          "seed": 44,
          "correlation": 0.991825882018188,
          "norm_ratio": 0.7978764293668229,
          "mean_rel_change": 0.44635337591171265
        },
        {
          "seed": 45,
          "correlation": 0.9946655009586921,
          "norm_ratio": 0.8048181313724211,
          "mean_rel_change": 0.6704939603805542
        },
        {
          "seed": 46,
          "correlation": 0.9939866096166293,
          "norm_ratio": 0.7963509441458639,
          "mean_rel_change": 0.6333147883415222
        }
      ],
      "avg_correlation": 0.9936089024486966,
      "avg_rel_change": 0.5942580044269562,
      "interpretation": "preserved"
    },
    "decoder_weight": {
      "per_seed": [
        {
          "seed": 42,
          "correlation": 0.8726552722219038,
          "norm_ratio": 1.5603185066543852,
          "mean_rel_change": 11.065741539001465
        },
        {
          "seed": 43,
          "correlation": 0.8610523893060634,
          "norm_ratio": 1.557380882926805,
          "mean_rel_change": 11.198005676269531
        },
        {
          "seed": 44,
          "correlation": 0.8737509247060804,
          "norm_ratio": 1.5225315731553284,
          "mean_rel_change": 7.453237533569336
        },
        {
          "seed": 45,
          "correlation": 0.8672821681027475,
          "norm_ratio": 1.5230630188459688,
          "mean_rel_change": 9.239705085754395
        },
        {
          "seed": 46,
          "correlation": 0.8757335141381486,
          "norm_ratio": 1.5350980336679887,
          "mean_rel_change": 10.993816375732422
        }
      ],
      "avg_correlation": 0.8700948536949887,
      "avg_rel_change": 9.99010124206543,
      "interpretation": "partially preserved"
    },
    "decoder_bias": {
      "per_seed": [
        {
          "seed": 42,
          "correlation": 0.756033063538075,
          "norm_ratio": 1.378977066922239,
          "mean_rel_change": 2.3236711025238037
        },
        {
          "seed": 43,
          "correlation": 0.6757492001120481,
          "norm_ratio": 1.394280657291288,
          "mean_rel_change": 3.5647027492523193
        },
        {
          "seed": 44,
          "correlation": 0.7066175005286139,
          "norm_ratio": 1.4097301978754546,
          "mean_rel_change": 1.6062778234481812
        },
        {
          "seed": 45,
          "correlation": 0.7398417229916919,
          "norm_ratio": 1.2138497284964855,
          "mean_rel_change": 2.993248224258423
        },
        {
          "seed": 46,
          "correlation": 0.7868894148615951,
          "norm_ratio": 1.338648827481255,
          "mean_rel_change": 1.953594446182251
        }
      ],
      "avg_correlation": 0.7330261804064049,
      "avg_rel_change": 2.4882988691329957,
      "interpretation": "partially preserved"
    },
    "apl_gain": {
      "per_seed": [
        {
          "seed": 42,
          "teacher_gain_x4": 3.6805076599121094,
          "student_gain": 7.039743423461914,
          "relative_change": 0.9127098960120147
        },
        {
          "seed": 43,
          "teacher_gain_x4": 3.7672529220581055,
          "student_gain": 7.223893642425537,
          "relative_change": 0.9175494164801173
        },
        {
          "seed": 44,
          "teacher_gain_x4": 3.684016704559326,
          "student_gain": 6.8746867179870605,
          "relative_change": 0.8660845672819486
        },
        {
          "seed": 45,
          "teacher_gain_x4": 3.3624773025512695,
          "student_gain": 6.606159210205078,
          "relative_change": 0.9646702760469713
        },
        {
          "seed": 46,
          "teacher_gain_x4": 3.4182136058807373,
          "student_gain": 6.939566612243652,
          "relative_change": 1.0301734801782825
        }
      ],
      "avg_rel_change": 0.9382375271998669,
      "note": "Teacher APL gain multiplied by 4.0 at student init"
    }
  },
  "comparison": {
    "or_gains": {
      "teacher_r": 0.9926085353528993,
      "student_r": 0.9947552687073559,
      "delta": 0.002146733354456587,
      "change": "STABLE"
    },
    "decoder_weight": {
      "teacher_r": 0.7873941630881772,
      "student_r": 0.906156397376856,
      "delta": 0.11876223428867883,
      "change": "MORE consistent"
    },
    "decoder_bias": {
      "teacher_r": 0.917667171067516,
      "student_r": 0.9737118951243673,
      "delta": 0.056044724056851236,
      "change": "MORE consistent"
    }
  }
}